//Numpy array shape [64]
//Min -0.394249826670
//Max 0.556040704250
//Number of zeros 0

#ifndef B2_H_
#define B2_H_

#ifndef __SYNTHESIS__
model_default_t b2[64];
#else
model_default_t b2[64] = {-0.0980958417, 0.4002625942, 0.5286548734, -0.0632555634, 0.3271977603, 0.0490962453, 0.3959744573, 0.0967452377, -0.1254799962, 0.2222814113, -0.0207054634, 0.0271216519, -0.0598198958, -0.1381604970, -0.2239477038, 0.3424463570, 0.0335260555, -0.2170504183, 0.3519712687, 0.4238285124, 0.1721081138, 0.1691209227, 0.1546488255, 0.0967155769, -0.1662530601, -0.0298990030, 0.2200124115, 0.1532227099, -0.0898789391, 0.0203689188, 0.0936625302, -0.0980614126, 0.2131088823, 0.3510906398, 0.1466573924, 0.5560407043, 0.2043896914, 0.4750676751, 0.2288909256, -0.3264455795, 0.0435732305, 0.2052182406, -0.3942498267, -0.1436536461, 0.2381049544, 0.3173046708, -0.0438914783, 0.3851525187, -0.1540405005, 0.3556149006, 0.2551011741, 0.0105241174, -0.1089377254, 0.2810362875, 0.1211000979, -0.3296518624, 0.0475454964, 0.0234045219, 0.2999491096, -0.0134964744, 0.0951263458, 0.1186701432, 0.1071055233, -0.0490972064};
#endif

#endif
