//Numpy array shape [32, 32]
//Min -1.949956893921
//Max 0.795083880424
//Number of zeros 0

#ifndef W8_H_
#define W8_H_

#ifndef __SYNTHESIS__
model_default_t w8[1024];
#else
model_default_t w8[1024] = {-0.0265140999, 0.4348905385, 0.0049328934, 0.0379325300, -0.2782973647, 0.2107181549, -0.0020615729, -0.0012338278, 0.0003910033, -0.0057974644, 0.0011200036, 0.0009649837, -0.0002556144, 0.0010217126, 0.2503870726, 0.0048304284, 0.0019303364, 0.0011389711, 0.0032836739, -0.0018878133, 0.0022857427, 0.1576391757, -0.1979833841, 0.4854946733, -0.0875641853, 0.0625393018, 0.0043948144, 0.0008536699, 0.0000391239, -0.4266228378, 0.1327353269, -0.0012563918, -0.0008127381, 0.1582595855, 0.0027467399, 0.0067879669, 0.0020661396, -0.0008229398, 0.1691416502, -0.0000842038, 0.0002821931, 0.0009934962, -0.0005772290, 0.0029829047, 0.1852180362, 0.0521367602, 0.0015326651, -0.1462102085, 0.0015817978, 0.0003578175, 0.0012671340, -0.0011920766, 0.0381850451, 0.0025447635, 0.0005806197, 0.1728177369, 0.0012328629, -0.0415259004, 0.0012898714, 0.0014893274, 0.0001790479, -0.0036676894, -0.0035034802, -0.0684077293, -0.0018037227, 0.3819697797, 0.0115097938, -0.0052680261, 0.1156568751, 0.0048295716, -0.0090641798, -0.1655687690, 0.0025049574, 0.0041209152, 0.0241031814, 0.0033131526, -0.0024935764, -0.0747382268, 0.1655878425, -0.1085779667, -0.0012347342, 0.0016057987, 0.0026984361, -0.0007946960, 0.1414499134, 0.0035501551, -0.3228670657, 0.4740957618, -0.0937248468, -0.2560065389, -0.0012598950, -0.2169197649, 0.0000724670, 0.0000101434, -0.0060165320, -0.2028279901, -0.0009902297, -0.0000447918, 0.0020075249, 0.0003037862, 0.1159713343, -0.0000820708, 0.0729106739, -0.0877348185, 0.0016552361, 0.0006747507, -0.0001556835, 0.0023350392, -0.0018967540, 0.0005655122, -0.0008704945, -0.0005850591, -0.0021283710, 0.0006086971, 0.0013069997, -0.0017549857, -0.0000720318, 0.0037980806, 0.1013864130, 0.0000140090, 0.0150759481, 0.0150005873, 0.0262508877, 0.0019593842, 0.0000207367, -0.0016162985, 0.0242825188, -0.0019594734, 0.0089719640, 0.0051646088, 0.0047406293, -0.0122333607, 0.0177576412, -0.2198854685, -0.1617188752, -0.2274907231, 0.0000091602, 0.0029078966, -0.0163012818, 0.0012075655, -0.2798956037, -0.2250398099, -0.0002232905, -0.0005704925, -0.0003169282, -0.2273161560, 0.0000761991, 0.0048110327, -0.0002772664, 0.0025102631, 0.0017610692, 0.0054290215, 0.0035040446, 0.0006410779, -0.0010758330, 0.0314697400, 0.0000770238, -0.0000047598, -1.1477274895, 0.2178468555, -0.0351314880, -0.1735994965, 0.3131925762, -0.1048664749, 0.2220440060, -0.0009301607, 0.6965185404, -0.0093804067, 0.0209983513, -0.0552451797, -0.1477327496, -1.3012505770, 0.0971599966, -0.0014243092, -0.1286879778, 0.1881985217, 0.2311183065, -0.3191265762, 0.2530333698, -0.0798200741, 0.0005210851, 0.3386644423, 0.3610780537, -0.6027039289, 0.1455622464, 0.4128994048, 0.1115615144, 0.1314721555, -0.0000386129, -0.0293549132, 0.3962092102, 0.4003618062, 0.1534418911, 0.1467350423, 0.0008967844, -0.1002244502, 0.0011894315, 0.1588344425, -0.0936972648, -0.0006094258, -0.0000719423, 0.0037952163, 0.2308445424, 0.1346027255, 0.0090402253, 0.0057146251, 0.1513411254, -0.0007859436, -0.6939935684, -0.0012320199, -0.0002777757, 0.1225267127, -0.0904878080, -0.0815925449, 0.0297089424, 0.1378197670, 0.0021963071, -0.0009343879, -0.0009426357, 0.1166679859, 0.0000438750, 0.0000713919, -0.0014523960, 0.1860224158, 0.0010667138, 0.1005673856, 0.0048795985, 0.0617263913, -0.1873042285, -0.0011241948, 0.5612760782, -0.0129545825, 0.0355383903, -0.0004835043, -0.4477010667, 0.0057863221, 0.1612203121, -0.4814966917, 0.0015017840, -0.0054964190, 0.1708103567, -0.1121976301, 0.0245368276, -0.0018575575, 0.0064519439, -0.0233203303, 0.6161786318, -0.0001903055, -0.0003154506, -0.1518369615, 0.0001078008, -0.2081291080, 0.0000049494, -0.0007964229, 0.0585679449, 0.0019487285, 0.3651500046, 0.2217160016, 0.0162099414, -0.1617606431, 0.0011177558, 0.0370257869, -0.2881307304, -0.1247091442, 0.0055060103, -0.5453198552, 0.0020536319, 0.0060743890, -0.1626652032, 0.0013828060, 0.2845443189, 0.4812170565, -0.0029683888, -0.0015675278, 0.0065729003, 0.0022967497, 0.1708325446, 0.0039358260, -0.3337085545, 0.0014707791, -0.3169079721, 0.0037405200, 0.2365023792, 0.2358219773, -0.0000304902, -0.4812318683, 0.1236332357, 0.3167019486, -0.0306215398, -0.4683383703, 0.0605250448, -0.0999528021, 0.4442530572, 0.2185141295, -0.4167532623, 0.2243574262, 0.0068434332, 0.2581396103, 0.1524796784, -0.0051218951, -0.1021115184, 0.5423740149, 0.0008279302, -0.0011904717, -0.0773549303, 0.0260108393, 0.0218011755, -0.0263387505, 0.0004761306, -0.0005286190, 0.0670048147, -0.0988695323, 0.4221796393, 0.2047149986, 0.0310446862, 0.4259351194, 0.0001251655, -0.0012434310, 0.1383951157, -0.5775878429, 0.0000777381, -0.0000325541, -0.0000670692, 0.0002990046, 0.0000389717, -0.0001065463, -0.0002945265, 0.0002247308, 0.0002807805, -0.0001315949, 0.0000106615, -0.0001651994, -0.0000475729, -0.0002301084, -0.0001056525, 0.0000947247, -0.0000321274, 0.0003624031, 0.0000182096, -0.0000949396, 0.0000859103, 0.0002304581, -0.0001259663, 0.0000247793, 0.0000196620, -0.0002206378, 0.0001549184, -0.0000431887, -0.0000318568, 0.0000474015, 0.0001035160, 0.0001842213, 0.0000052118, 0.0002781535, 0.0000590088, 0.0004921864, 0.0000179477, -0.0000439213, -0.0000384819, -0.0000645262, -0.0000127124, 0.0002186590, -0.0001571213, 0.0000143782, -0.0004819813, 0.0000355015, 0.0001852440, 0.0000007040, 0.0001121536, 0.0000421558, -0.0002045092, 0.0000143321, 0.0002721437, 0.0001477530, 0.0001744875, -0.0000230718, -0.0001411848, -0.0000079314, -0.0000111559, -0.0001296937, -0.0000881166, -0.0001079842, 0.0000639204, -0.0000296121, -0.0002894722, 0.0019417051, 0.0015537005, -0.0024112521, -0.0007582515, -0.0008510040, 0.0020433189, 0.0009372535, 0.0019959453, 0.0007748078, -0.0004528279, 0.0004821327, -0.0007467868, 0.0000643733, -0.0002984332, -0.0020225192, -0.0021930570, 0.0011955751, 0.0019667316, -0.0021158354, -0.0003981003, -0.0010415444, 0.0652154461, 0.0003650418, 0.0512023605, -0.0020366574, -0.0027717405, 0.0009508355, 0.0001212407, -0.0015783582, 0.0025424433, -0.0020596217, 0.0000881719, -0.0001423546, 0.0000359137, 0.0002002328, -0.0000936861, 0.0001642341, 0.0000857623, 0.0000403123, -0.0000075941, 0.0000337069, -0.0000900687, 0.0000579174, -0.0000457077, 0.0000832190, 0.0000700316, 0.0000904045, -0.0000413025, -0.0000392305, 0.0000244832, 0.0001173574, -0.0000781114, -0.0001342988, 0.0001506153, 0.0000152297, -0.0000695630, 0.0000350878, 0.0000356450, 0.0000671997, -0.0000444502, 0.0000138482, -0.0000625125, 0.0001030644, -0.0065503297, 0.2884477377, 0.0146992579, 0.0033214940, -0.2157178521, 0.0856156945, 0.4401493371, 0.1016959995, 0.0011144624, 0.1527035683, -0.1197520271, 0.2366786599, 0.3836361170, -0.1548129171, 0.0387336910, 0.2588081658, 0.0015246867, 0.1701417565, 0.0007078522, 0.0295728166, -0.1128548831, 0.0003179439, 0.1828125864, -0.0034028259, 0.0309019778, -0.0633959025, -0.0880408213, -0.2862496674, 0.0001817540, 0.0009113848, 0.0189809017, -0.1438249946, 0.4119626582, 0.0021607594, 0.0228345282, -0.3945878148, 0.3185283244, 0.0325015746, -0.1323402375, -0.0270124059, 0.0091153914, -0.9176924825, 0.0120775616, 0.1729485989, -0.5866174698, 0.0010515819, 0.2113380432, 0.1950948387, -0.1322208047, -0.0124184126, 0.0047495007, 0.0065693064, 0.0020149823, -0.1236522272, -0.5199905634, 0.0035882490, -0.4432793260, 0.0443822965, 0.2559038401, 0.4232315421, 0.0002540390, -0.1289260089, 0.0001606202, 0.4211117625, -0.0002027987, -0.0003511044, 0.0003288374, 0.0037225876, 0.0009827077, -0.0003265110, 0.0017763466, -0.0020485735, 0.0000558757, 0.0013540437, -0.0000662346, 0.0038564703, 0.2095765024, 0.0014622920, -0.0002319564, 0.0003996986, 0.0018369511, 0.0012407976, -0.0006043658, -0.0020599817, -0.0000992500, 0.0053910320, 0.0016780717, 0.0002164316, 0.0031131804, 0.0021469342, 0.0005141555, -0.0007876115, 0.0000173081, -0.0004797324, -0.0024103909, -0.0023625258, -0.0000419750, 0.1801149994, 0.0018315808, -0.0030527622, 0.0022364436, -0.4491586983, -0.3302824795, -0.0003139080, 0.0180093367, 0.0001763626, 0.1325235218, 0.0027030900, -1.0191599131, 0.0002366000, 0.0622008257, 0.0056758085, 0.1751861721, -0.0056311144, 0.3054116070, -0.2152648419, -0.0012059698, -0.1813146323, -0.1853665411, 0.2620231509, -0.2187930793, 0.0036473686, 0.1009125412, 0.0019884054, 0.0000639345, 0.0834657550, -0.2668800652, 0.3564884663, 0.1156289726, 0.0026636724, 0.2295922041, -0.0227297414, -0.1666553766, -0.5252789259, -0.0713999867, -0.0179941542, 0.3755347729, 0.0194190741, 0.0944423154, 0.0041218279, -0.2003116757, -0.0023904291, -0.0015654120, 0.0005613617, 0.0938942656, -0.0001369993, 0.1525650769, -0.0821535960, -0.0014384558, -0.0049121990, 0.1385030299, 0.0254598800, 0.0060643204, 0.2610871196, 0.1809766442, -0.1979922354, -0.0000840671, 0.1429768056, -1.1639163494, -0.0040246989, -0.6154829264, 0.0039644404, 0.2669267654, 0.7950838804, -0.4268484712, -0.0075082579, 0.0012526752, -0.0091022570, -0.0012449935, -1.0702174902, -0.0004202315, 0.1975401789, -0.0492858402, -0.6318852305, 0.5065560937, 0.0015214699, 0.0786975771, 0.0063359961, -0.0010257073, -0.0029306291, -0.0002436214, -1.1476848125, -0.3851996362, 0.6375480890, -1.4965668917, -1.9499568939, 0.0101895910, 0.0852694437, -0.0000899143, -0.0023637572, 0.0000892915, 0.0653005764, -0.1132530794, 0.0563830622, 0.2893859148, 0.1105220541, -0.2708878517, -1.0047646761, -0.1011360437, 0.2618903518, 0.1157608256, 0.1961056590, 0.1194532812, 0.0027763550, -0.2276039124, -0.2154724300, 0.0673391595, -0.3098280728, 0.1915107667, -0.0021968889, 0.1646317244, -0.4070880711, -0.0010312719, -0.4477214813, 0.1024265811, 0.0224315431, 0.0020314862, 0.0896811411, 0.0076165264, 0.2049769461, 0.0000378750, 0.2648032010, -1.1002811193, -0.1661891937, -0.0002220231, 0.0050469469, 0.0055448459, 0.0015754391, 0.1215100586, 0.0024065163, -0.1214972585, 0.3053674698, -0.0001875936, 0.0031837327, 0.0005882378, 0.0041907812, 0.1751863211, 0.3369294703, 0.0579314567, -0.1518465728, -0.3091818094, -0.0013732002, 0.0002184619, 0.0707721785, 0.1127022132, -0.1009260267, -0.0017243760, 0.0068713515, -0.0011882219, -1.0607420206, -0.6309773326, 0.3254265189, -0.0000478693, 0.0002133086, 0.0747080669, 0.1256317794, -0.0243546758, 0.0004056097, 0.0039706584, -0.0592673793, 0.1595310867, 0.3375159204, 0.3036004305, 0.0010173717, 0.0006266546, 0.0005337381, -0.0001461754, 0.4849961400, 0.0361849368, 0.1899763644, 0.0007411566, 0.2778077722, 0.0005261438, 0.1558059901, 0.0016581703, 0.0905766785, -0.0002024151, 0.0013557321, 0.0016231101, 0.0120369950, 0.1211791858, -0.0004712928, -0.0001996894, -0.2765698433, 0.0002075835, -0.0000653524, 0.1141530424, 0.0629819632, 0.0060151992, 0.0015858259, 0.0008786304, -0.0000420614, 0.2759892642, 0.0311019327, 0.0005151365, -0.1428884417, 0.0005764184, 0.0999546051, -0.0010001957, 0.0043509523, 0.0034578210, 0.0001339369, 0.0812677070, 0.2257255465, 0.0003848617, -0.1397173703, 0.0005245744, 0.0001880974, 0.2538446784, 0.0053849705, 0.0022291036, 0.0011287569, 0.1555096656, 0.0840474963, -0.0009882024, -0.0477287062, -0.0001646633, 0.0001291039, 0.0620277636, -0.0008797541, 0.3476358354, 0.1018080190, 0.0023491830, -0.0852427110, 0.3396535814, 0.0003910670, 0.1978246272, -0.0637702048, 0.0983370245, -0.0810224190, -0.0041218894, 0.0089388648, -0.0016691425, -0.0007236846, -0.0026986070, -0.0037060606, -0.0027890871, 0.0014701921, 0.0017613745, -0.0000941840, -0.0018416228, -0.0512779839, 0.0025855061, 0.0002962798, 0.0157951862, -0.2393110096, -0.0052093016, -0.1483160108, -0.0001194704, 0.1349378824, -0.0056109973, 0.0874854550, 0.0500894859, 0.0012066279, -1.5160506964, 0.0027176670, 0.0554448627, 0.3512846828, 0.0288412645, 0.0055301567, -0.8496949077, 0.0026571699, 0.0923038125, 0.2932021618, 0.0859955698, 0.2081374228, 0.0012881573, 0.1725492179, 0.0049174591, 0.0045559639, -1.4359107018, 0.1705448031, 0.1139941290, 0.1417238712, 0.3422752619, 0.0010541917, 0.1239367202, 0.1625131518, 0.0022943900, -0.0063604428, -0.0000292221, -0.0007342016, 0.2284020036, -0.0631426424, -0.0002995148, 0.0009878863, -0.0018765687, -0.0035190103, -0.0071670609, 0.0026436416, 0.2438962907, -0.0026294996, -0.0020072586, 0.0050335089, -0.3128854930, -0.0001586589, 0.0030481829, 0.0037853958, -0.2257943600, 0.5069051385, -0.0008013999, 0.0005440215, -0.0018443421, 0.0032007417, -0.0024103126, 0.0031024818, 0.5308355093, -0.0005740224, 0.0052269376, -0.0000449600, -0.0001192176, -0.3519914150, 0.0000172773, -0.0000487615, 0.0060723047, 0.4052106440, -0.0015910413, 0.0012437461, 0.0015902630, -0.0564524382, 0.1887680739, -0.0010353783, 0.0004712385, 0.0480662137, 0.0015221233, 0.0882676169, -0.0013352977, 0.0007976487, -0.0001142027, 0.2594621480, -0.0006808991, -0.3943842649, -0.1460303217, 0.0000792682, 0.0014921911, -0.0026036180, -0.0010283762, 0.0015149710, -0.1098425090, -0.1239059791, 0.0028894176, -0.1632680893, -0.0020449755, 0.1287297606, 0.0001500095, -0.0009177669, 0.0000048732, -0.0022524903, 0.1418400705, -0.0000975700, 0.0050198436, -0.1629950702, 0.2223671824, 0.0040115817, -0.3176005185, -0.2779085636, 0.0030860163, 0.0058473167, 0.3699405789, -0.0012445004, -0.0001167314, -0.0732755810, 0.0027228668, -0.3192690313, -0.0038973158, -0.0007512337, 0.0048098709, -0.0008345827, 0.5336852670, 0.0113227172, -0.1668281704, 0.0014510659, 0.0003759437, -0.0129464418, 0.0008471810, -0.0002239571, 0.0001751151, -0.0028526238, -0.0030756050, -0.0320732556, -0.0018746369, -0.0000133082, -0.0030775180, 0.0027585411, -0.0014289423, -0.0007348462, 0.0101610580, 0.0012056746, -0.0033323453, 0.0039622341, -0.0013304071, 0.0048019690, 0.1443528682, 0.0003880040, -0.0000609334, 0.0038336173, 0.2248692513, 0.0004708340, -0.0039629126, -0.0014761663, -0.0020993154, 0.0043928563, 0.0029439663, -0.0026486190, 0.0011714078, 0.0032668135, 0.0014245018, -0.3405280411, -0.0001896988, -0.0007521093, -0.0027239022, -0.0035370709, 0.0123369712, 0.2306152433, 0.0012468552, 0.0062200604, 0.2713490427, 0.0022543431, 0.2554403841, -0.4621870220, 0.0021208290, 0.0421540476, -0.0005180340, 0.0049056690, 0.0027727436, -0.0020015344, 0.0002217925, -0.0547557324, -0.0014196679, 0.0007600090, 0.0017489812, -0.0002926949, 0.1474540383, 0.0062762611, 0.2009353340, 0.2567986846, 0.0124265645, -0.1108132079, -0.0016546993, -0.2718979120, -0.0002182789, 0.0465339758, -0.0019501525, -0.0646334589, -0.7033834457, 0.0049259998, 0.2161473334, 0.3179064989, -0.5286884308, -0.0021181330, -0.1380292922, 0.3673664331, 0.0014261528, 0.0438652672, 0.1018171832, -0.0859853700, 0.2999907434, -0.0006312269, 0.3639114797, -0.1700502187, 0.0704752877, 0.0837393552, 0.0028649059, -0.0059035886, -0.0011040992, 0.0056424253, -0.1140106767, 0.1462493688, -0.0260179080, -0.0011135024, 0.0004835346, 0.2047988474, -0.0003849478, -0.0808780640, 0.1386088729, -0.1683663279};
#endif

#endif
